digraph Tree {
node [shape=box, style="filled, rounded", color="black", fontname=helvetica] ;
edge [fontname=helvetica] ;
0 [label=<contract &le; 0.5<br/>gini = 0.346<br/>samples = 3482<br/>value = [774, 2708]<br/>class = not loss>, fillcolor="#399de5b6"] ;
1 [label=<flow_tranf &le; 0.5<br/>gini = 0.199<br/>samples = 2604<br/>value = [291, 2313]<br/>class = not loss>, fillcolor="#399de5df"] ;
0 -> 1 [labeldistance=2.5, labelangle=45, headlabel="True"] ;
2 [label=<pack_type &le; 1.5<br/>gini = 0.117<br/>samples = 2272<br/>value = [142, 2130]<br/>class = not loss>, fillcolor="#399de5ee"] ;
1 -> 2 ;
3 [label=<asso_pur &le; 0.5<br/>gini = 0.094<br/>samples = 2237<br/>value = [111, 2126]<br/>class = not loss>, fillcolor="#399de5f2"] ;
2 -> 3 ;
4 [label=<time_tranf &le; 0.5<br/>gini = 0.075<br/>samples = 2195<br/>value = [86, 2109]<br/>class = not loss>, fillcolor="#399de5f5"] ;
3 -> 4 ;
5 [label=<gini = 0.024<br/>samples = 1337<br/>value = [16, 1321]<br/>class = not loss>, fillcolor="#399de5fc"] ;
4 -> 5 ;
6 [label=<gini = 0.15<br/>samples = 858<br/>value = [70, 788]<br/>class = not loss>, fillcolor="#399de5e8"] ;
4 -> 6 ;
7 [label=<group_user &le; 0.5<br/>gini = 0.482<br/>samples = 42<br/>value = [25, 17]<br/>class = loss>, fillcolor="#e5813952"] ;
3 -> 7 ;
8 [label=<gini = 0.486<br/>samples = 24<br/>value = [10, 14]<br/>class = not loss>, fillcolor="#399de549"] ;
7 -> 8 ;
9 [label=<gini = 0.278<br/>samples = 18<br/>value = [15, 3]<br/>class = loss>, fillcolor="#e58139cc"] ;
7 -> 9 ;
10 [label=<time_tranf &le; 0.5<br/>gini = 0.202<br/>samples = 35<br/>value = [31, 4]<br/>class = loss>, fillcolor="#e58139de"] ;
2 -> 10 ;
11 [label=<gini = 0.26<br/>samples = 13<br/>value = [11, 2]<br/>class = loss>, fillcolor="#e58139d1"] ;
10 -> 11 ;
12 [label=<group_user &le; 0.5<br/>gini = 0.165<br/>samples = 22<br/>value = [20, 2]<br/>class = loss>, fillcolor="#e58139e6"] ;
10 -> 12 ;
13 [label=<gini = 0.18<br/>samples = 10<br/>value = [9, 1]<br/>class = loss>, fillcolor="#e58139e3"] ;
12 -> 13 ;
14 [label=<gini = 0.153<br/>samples = 12<br/>value = [11, 1]<br/>class = loss>, fillcolor="#e58139e8"] ;
12 -> 14 ;
15 [label=<time_tranf &le; 0.5<br/>gini = 0.495<br/>samples = 332<br/>value = [149, 183]<br/>class = not loss>, fillcolor="#399de52f"] ;
1 -> 15 ;
16 [label=<asso_pur &le; 0.5<br/>gini = 0.268<br/>samples = 113<br/>value = [18, 95]<br/>class = not loss>, fillcolor="#399de5cf"] ;
15 -> 16 ;
17 [label=<group_user &le; 0.5<br/>gini = 0.226<br/>samples = 108<br/>value = [14, 94]<br/>class = not loss>, fillcolor="#399de5d9"] ;
16 -> 17 ;
18 [label=<gini = 0.187<br/>samples = 96<br/>value = [10, 86]<br/>class = not loss>, fillcolor="#399de5e1"] ;
17 -> 18 ;
19 [label=<gini = 0.444<br/>samples = 12<br/>value = [4, 8]<br/>class = not loss>, fillcolor="#399de57f"] ;
17 -> 19 ;
20 [label=<gini = 0.32<br/>samples = 5<br/>value = [4, 1]<br/>class = loss>, fillcolor="#e58139bf"] ;
16 -> 20 ;
21 [label=<group_user &le; 0.5<br/>gini = 0.481<br/>samples = 219<br/>value = [131, 88]<br/>class = loss>, fillcolor="#e5813954"] ;
15 -> 21 ;
22 [label=<asso_pur &le; 0.5<br/>gini = 0.5<br/>samples = 151<br/>value = [74, 77]<br/>class = not loss>, fillcolor="#399de50a"] ;
21 -> 22 ;
23 [label=<gini = 0.496<br/>samples = 141<br/>value = [64, 77]<br/>class = not loss>, fillcolor="#399de52b"] ;
22 -> 23 ;
24 [label=<gini = 0.0<br/>samples = 10<br/>value = [10, 0]<br/>class = loss>, fillcolor="#e58139ff"] ;
22 -> 24 ;
25 [label=<asso_pur &le; 1.5<br/>gini = 0.271<br/>samples = 68<br/>value = [57, 11]<br/>class = loss>, fillcolor="#e58139ce"] ;
21 -> 25 ;
26 [label=<gini = 0.296<br/>samples = 61<br/>value = [50, 11]<br/>class = loss>, fillcolor="#e58139c7"] ;
25 -> 26 ;
27 [label=<gini = 0.0<br/>samples = 7<br/>value = [7, 0]<br/>class = loss>, fillcolor="#e58139ff"] ;
25 -> 27 ;
28 [label=<group_user &le; 0.5<br/>gini = 0.495<br/>samples = 878<br/>value = [483, 395]<br/>class = loss>, fillcolor="#e581392e"] ;
0 -> 28 [labeldistance=2.5, labelangle=-45, headlabel="False"] ;
29 [label=<flow_tranf &le; 0.5<br/>gini = 0.457<br/>samples = 445<br/>value = [157, 288]<br/>class = not loss>, fillcolor="#399de574"] ;
28 -> 29 ;
30 [label=<asso_pur &le; 0.5<br/>gini = 0.398<br/>samples = 303<br/>value = [83, 220]<br/>class = not loss>, fillcolor="#399de59f"] ;
29 -> 30 ;
31 [label=<time_tranf &le; 0.5<br/>gini = 0.388<br/>samples = 296<br/>value = [78, 218]<br/>class = not loss>, fillcolor="#399de5a4"] ;
30 -> 31 ;
32 [label=<gini = 0.317<br/>samples = 81<br/>value = [16, 65]<br/>class = not loss>, fillcolor="#399de5c0"] ;
31 -> 32 ;
33 [label=<gini = 0.41<br/>samples = 215<br/>value = [62, 153]<br/>class = not loss>, fillcolor="#399de598"] ;
31 -> 33 ;
34 [label=<gini = 0.408<br/>samples = 7<br/>value = [5, 2]<br/>class = loss>, fillcolor="#e5813999"] ;
30 -> 34 ;
35 [label=<asso_pur &le; 0.5<br/>gini = 0.499<br/>samples = 142<br/>value = [74, 68]<br/>class = loss>, fillcolor="#e5813915"] ;
29 -> 35 ;
36 [label=<time_tranf &le; 0.5<br/>gini = 0.5<br/>samples = 136<br/>value = [68, 68]<br/>class = loss>, fillcolor="#e5813900"] ;
35 -> 36 ;
37 [label=<gini = 0.475<br/>samples = 18<br/>value = [7, 11]<br/>class = not loss>, fillcolor="#399de55d"] ;
36 -> 37 ;
38 [label=<gini = 0.499<br/>samples = 118<br/>value = [61, 57]<br/>class = loss>, fillcolor="#e5813911"] ;
36 -> 38 ;
39 [label=<gini = 0.0<br/>samples = 6<br/>value = [6, 0]<br/>class = loss>, fillcolor="#e58139ff"] ;
35 -> 39 ;
40 [label=<time_tranf &le; 0.5<br/>gini = 0.372<br/>samples = 433<br/>value = [326, 107]<br/>class = loss>, fillcolor="#e58139ab"] ;
28 -> 40 ;
41 [label=<pack_type &le; 2.5<br/>gini = 0.496<br/>samples = 79<br/>value = [43, 36]<br/>class = loss>, fillcolor="#e581392a"] ;
40 -> 41 ;
42 [label=<flow_tranf &le; 0.5<br/>gini = 0.5<br/>samples = 74<br/>value = [38, 36]<br/>class = loss>, fillcolor="#e581390d"] ;
41 -> 42 ;
43 [label=<gini = 0.495<br/>samples = 58<br/>value = [26, 32]<br/>class = not loss>, fillcolor="#399de530"] ;
42 -> 43 ;
44 [label=<gini = 0.375<br/>samples = 16<br/>value = [12, 4]<br/>class = loss>, fillcolor="#e58139aa"] ;
42 -> 44 ;
45 [label=<gini = 0.0<br/>samples = 5<br/>value = [5, 0]<br/>class = loss>, fillcolor="#e58139ff"] ;
41 -> 45 ;
46 [label=<flow_tranf &le; 0.5<br/>gini = 0.321<br/>samples = 354<br/>value = [283, 71]<br/>class = loss>, fillcolor="#e58139bf"] ;
40 -> 46 ;
47 [label=<asso_pur &le; 0.5<br/>gini = 0.388<br/>samples = 182<br/>value = [134, 48]<br/>class = loss>, fillcolor="#e58139a4"] ;
46 -> 47 ;
48 [label=<gini = 0.402<br/>samples = 172<br/>value = [124, 48]<br/>class = loss>, fillcolor="#e581399c"] ;
47 -> 48 ;
49 [label=<gini = 0.0<br/>samples = 10<br/>value = [10, 0]<br/>class = loss>, fillcolor="#e58139ff"] ;
47 -> 49 ;
50 [label=<asso_pur &le; 0.5<br/>gini = 0.232<br/>samples = 172<br/>value = [149, 23]<br/>class = loss>, fillcolor="#e58139d8"] ;
46 -> 50 ;
51 [label=<gini = 0.242<br/>samples = 163<br/>value = [140, 23]<br/>class = loss>, fillcolor="#e58139d5"] ;
50 -> 51 ;
52 [label=<gini = 0.0<br/>samples = 9<br/>value = [9, 0]<br/>class = loss>, fillcolor="#e58139ff"] ;
50 -> 52 ;
}